
//<![CDATA[

// a few things don't have var in front of them - they update already existing variables the game needs
lanesSide = 1;
patchesAhead = 10;
patchesBehind = 10;
trainIterations = 30000;

var num_inputs = (lanesSide * 2 + 1) * (patchesAhead + patchesBehind);
var num_actions = 5;
var temporal_window = 3;
var network_size = num_inputs * temporal_window + num_actions * temporal_window + num_inputs;

var layer_defs = [];
layer_defs.push({
    type: 'input',
    out_sx: 1,
    out_sy: 1,
    out_depth: network_size
});

layer_defs.push({
    type: 'fc',
    num_neurons: 5,
    activation: 'relu'
});

layer_defs.push({
    type: 'fc',
    num_neurons: 5,
    activation: 'relu'
});

layer_defs.push({
    type: 'fc',
    num_neurons: 5,
    activation: 'relu'
});

layer_defs.push({
    type: 'regression',
    num_neurons: num_actions
});

var tdtrainer_options = {
    learning_rate: 0.001,
    momentum: 0.0,
    batch_size: 64,
    l2_decay: 0.01
};

var opt = {};
opt.temporal_window = temporal_window;
opt.experience_size = 3000;
opt.start_learn_threshold = 500;
opt.gamma = 0.7;
opt.learning_steps_total = 10000;
opt.learning_steps_burnin = 1000;
opt.epsilon_min = 0.0;
opt.epsilon_test_time = 0.0;
opt.layer_defs = layer_defs;
opt.tdtrainer_options = tdtrainer_options;

brain = new deepqlearn.Brain(num_inputs, num_actions, opt);

learn = function (state, lastReward) {
    brain.backward(lastReward);
    var action = brain.forward(state);

    draw_net();
    draw_stats();

    return action;
}

//]]>
    
/*###########*/
if (brain) {
brain.value_net.fromJSON({"layers":[{"out_depth":255,"out_sx":1,"out_sy":1,"layer_type":"input"},{"out_depth":5,"out_sx":1,"out_sy":1,"layer_type":"fc","num_inputs":255,"l1_decay_mul":0,"l2_decay_mul":1,"filters":[{"sx":1,"sy":1,"depth":255,"w":{"0":0.010733934941660287,"1":-0.2009694391832968,"2":-0.05886398257089282,"3":-0.08308851503031255,"4":-0.40939998274962025,"5":-0.06923492204441777,"6":-0.07017535700095283,"7":-0.5809794188387855,"8":-0.07042210307750578,"9":0.07300421601170756,"10":-0.4513437811096021,"11":0.022688777554183498,"12":-0.06847399357705504,"13":-0.4421453087174286,"14":-0.05493777414912938,"15":-0.11909763277296576,"16":-0.27169366547779994,"17":-0.009330239843739834,"18":0.02546406614061883,"19":0.05579423826466187,"20":-0.08081856122950255,"21":-0.011574370132603581,"22":0.008842482785250416,"23":-0.045499881863931536,"24":-0.114167318222166,"25":0.08660521545211113,"26":-0.03252969367276414,"27":-0.014232282352660965,"28":-0.035025326061799644,"29":-0.10941318760392815,"30":-0.13704531725331512,"31":-0.28563508310674096,"32":-0.11091403391974142,"33":-0.029727246427789983,"34":-0.2558759425994169,"35":-0.13006363112767652,"36":-0.14895347079814436,"37":-0.21388132022189746,"38":-0.08247560034242443,"39":-0.07960690771840535,"40":-0.19537274202092075,"41":-0.12989507651231708,"42":0.07903923851271764,"43":0.07658819794103862,"44":-0.11276518466945865,"45":0.062354957728267324,"46":-0.013972110872425834,"47":-0.09167770065187081,"48":0.022689254719004546,"49":-0.05037407714960926,"50":0.04930699163209998,"51":-0.009615607258457485,"52":-0.10518803408780533,"53":-0.05586303913838343,"54":0.0046341255901671576,"55":-0.04994382241015191,"56":0.13277389958770489,"57":0.10765900521008695,"58":-0.08723546958294155,"59":0.03945066970176565,"60":-0.05787593708005357,"61":-0.18730230650842858,"62":-0.05703474190741985,"63":-0.024392243398039283,"64":-0.13241423940802766,"65":-0.011492875124395589,"66":-0.023265802673545253,"67":-0.1165259754830671,"68":0.004586115611262952,"69":-0.011386833276145624,"70":-0.08009122496563024,"71":0.004328160000684579,"72":0.06907249230879718,"73":-0.04253060847733507,"74":-0.06746912375513335,"75":-0.12963824354396045,"76":-0.17000044827493055,"77":-0.1061933098513076,"78":0.006000434908596945,"79":0.052894758600813725,"80":-0.04107336204353324,"81":-0.0030666346708548135,"82":0.016924605203364664,"83":-0.14874327045650532,"84":-0.09875218398285351,"85":-0.015378509667788828,"86":-0.09976768647637885,"87":-0.06303678771520786,"88":0.00853595449493579,"89":-0.052531897392628306,"90":-0.012348555307542574,"91":0.03718123500169933,"92":-0.12142173945029557,"93":0.0026781769878744745,"94":-0.09327591602719673,"95":0.03725674807472184,"96":0.001781695193029702,"97":0.035531857479610816,"98":-0.04708122076506271,"99":0.03256896845582236,"100":-0.12835723520201775,"101":0.03892428415857863,"102":0.13050206352788488,"103":-0.055217909871629556,"104":-0.04821695839851364,"105":-0.06045207950894388,"106":0.06294123925192571,"107":-0.07642296756467754,"108":0.06386329491478741,"109":0.014810765803156496,"110":0.09698175445597026,"111":0.06788648301965784,"112":0.01803587435015636,"113":-0.029005456620777772,"114":-0.0018305926552491026,"115":-0.006678784665618823,"116":-0.01958041003619257,"117":0.10590250871317955,"118":0.01052082738754751,"119":0.18808421433820066,"120":0.08807048222229094,"121":0.12196469029245416,"122":0.14477771632603617,"123":0.06397709822356369,"124":0.08659027577548256,"125":-0.004114102420521549,"126":-0.07094817711754497,"127":0.03832757008664584,"128":-0.011284158126702328,"129":-0.1015209296331263,"130":-0.08388392704442317,"131":-0.08899369755994718,"132":0.044995152422903306,"133":-0.05031739906382359,"134":-0.02115755305928078,"135":0.03487286619774997,"136":0.06793439272479955,"137":-0.020936720175460843,"138":0.08701189917083026,"139":0.0037180539008483528,"140":0.013669846435011958,"141":-0.023714725952807738,"142":-0.02948106709471153,"143":-0.11108612083766035,"144":-0.021904852756564567,"145":0.03229732626811601,"146":0.011097149693690696,"147":-0.08102389987284053,"148":0.015111893606153679,"149":0.013020510264983501,"150":-0.024739307820577407,"151":-0.06208524511458626,"152":-0.0562067173473664,"153":-0.15433942113476695,"154":-0.040507537327526204,"155":0.020622122135691347,"156":0.012250584280589139,"157":-0.12582852174817982,"158":-0.09008906326953556,"159":-0.04449740926484193,"160":-0.045370540251423175,"161":-0.01600018120087373,"162":0.0395068629114287,"163":-0.0836146029550744,"164":-0.040498870859576666,"165":-0.019312182222850666,"166":0.10245741814061535,"167":0.034740904814695064,"168":-0.08381192445302679,"169":0.027281738481098213,"170":0.014538371528718072,"171":-0.014157347564000422,"172":0.04035239364911516,"173":0.038790185866575295,"174":-0.05580541092444844,"175":0.035441127427066954,"176":-0.0869095159043436,"177":-0.013222660686105248,"178":0.04093752823438248,"179":-0.12289503686388228,"180":0.05914649064278929,"181":0.07693114925952342,"182":0.021269210022478533,"183":0.11930069576725184,"184":-0.06486767227011028,"185":0.039886284426532574,"186":0.07685708103518764,"187":0.17026398839391624,"188":0.031162501206572324,"189":0.12833549287301826,"190":0.027193864367824384,"191":0.07916590589897002,"192":0.049307383936165176,"193":-0.09771979076832717,"194":0.02329869544278309,"195":0.015325973152691658,"196":-0.05868651791965295,"197":-0.12586389597595443,"198":0.044243188092952336,"199":0.03683386712557732,"200":0.026904630301455363,"201":0.004667071956460066,"202":0.0961230802794209,"203":0.06576292492504433,"204":0.07547596611456023,"205":0.03600912522927041,"206":0.016061165627022218,"207":-0.07757323609992751,"208":-0.06742407997316419,"209":0.09456207568471589,"210":0.0031141954448711336,"211":-0.011640142463743964,"212":0.011014471533414692,"213":0.047049916194867605,"214":0.0036085093528622995,"215":0.13348044927869815,"216":-0.06643463656597069,"217":-0.02990992741837068,"218":0.08993559024848019,"219":-0.10198359822976943,"220":0.019581558462085043,"221":-0.08354633701873425,"222":-0.06484532836702878,"223":0.018035005759454877,"224":0.02112063719505185,"225":-0.050801435251143896,"226":-0.05534230107487944,"227":0.06666704374136899,"228":0.07673102152127735,"229":-0.023471485134832017,"230":-0.04758355904857011,"231":-0.015076670037231845,"232":0.16246553036919056,"233":-0.052819080961723996,"234":0.006390496349368404,"235":-0.09028027466855752,"236":0.0527745793842868,"237":0.19165165400070902,"238":0.059840043307633754,"239":-0.04903203145353023,"240":0.09433103756339153,"241":0.0284403266627862,"242":0.024831504348031944,"243":0.014335955357804225,"244":-0.046092223692484446,"245":-0.07781120370518904,"246":0.028835506717633113,"247":-0.07438311740272534,"248":-0.12380920010421993,"249":0.0490346372912358,"250":0.07845377733187307,"251":0.12563852148441648,"252":0.14558103366429587,"253":0.07814577396282817,"254":0.0781945085774081}},{"sx":1,"sy":1,"depth":255,"w":{"0":0.0077429829920017445,"1":0.18290980399177195,"2":-0.009260477698580332,"3":-0.05457721950157052,"4":0.1438407555145456,"5":0.022627299307161352,"6":0.06112692787908226,"7":0.3215306969456854,"8":0.09989981992139753,"9":0.1079384375976376,"10":0.3705184848413476,"11":0.03473762649548662,"12":0.02638880096798749,"13":0.2512113434787248,"14":0.13692054490876,"15":0.03354245073914436,"16":0.1466608898989748,"17":-0.011672711841947236,"18":-0.05088558195517829,"19":0.113206912988171,"20":0.11264974751330215,"21":-0.0425964337946202,"22":-0.01583280759913015,"23":0.0763708265816113,"24":0.11983181215793394,"25":-0.11958528519260032,"26":0.0998403241669507,"27":0.04557782961238025,"28":-0.06850215913587594,"29":0.06197439364730448,"30":0.08158087367353284,"31":0.06472883584186205,"32":0.08040734280736607,"33":0.027834587515689835,"34":0.20796166127083218,"35":0.03149976429533181,"36":0.05458147815833944,"37":0.07044533086591635,"38":0.16276953231412314,"39":0.027066670519212566,"40":0.07942571752125477,"41":0.15572994348490432,"42":-0.06899498930146288,"43":0.01562582042052346,"44":0.039836439257304734,"45":-0.11907831753825894,"46":0.05769985944479823,"47":-0.12176032876169925,"48":0.1353320064584272,"49":0.047469227891101994,"50":-0.10252717160308486,"51":-0.0019098000785297462,"52":-0.0058190917172443474,"53":0.06886073413441636,"54":0.049141584384933566,"55":0.10061410434987732,"56":0.037761255774807774,"57":0.03301121922501871,"58":-0.02245483157322858,"59":0.09051989572028596,"60":-0.0479027457775072,"61":0.21058440569265768,"62":-0.023758039954474255,"63":-0.08790668801094574,"64":0.11010187877615638,"65":-0.0149896251582443,"66":-0.018005603704644668,"67":0.2073470366337356,"68":-0.05527702707025583,"69":-0.12486112362815023,"70":0.012582142360403888,"71":-0.023754684460830146,"72":0.0246576673228829,"73":0.0784232590146741,"74":0.0331595623548161,"75":-0.05067601633352289,"76":0.0027567045480806854,"77":0.011240152885052573,"78":0.05027939977738677,"79":0.00872885962378089,"80":0.031870967809179744,"81":0.03670889869910205,"82":-0.07135169825111126,"83":-0.03941521703836291,"84":-0.027194285860398657,"85":0.043511537119774485,"86":0.024473770894160567,"87":0.036036973830921325,"88":0.062194036369348726,"89":0.002833215864805082,"90":0.08975084258577402,"91":-0.05925726958102827,"92":0.03387431982131799,"93":0.008143096420148944,"94":-0.06246164062504949,"95":-0.04541594429587013,"96":-0.11353132500834869,"97":0.06805883446660503,"98":-0.025174557872528005,"99":0.10115807256174549,"100":-0.08805981279235434,"101":0.11590332077731827,"102":-0.008043302879485086,"103":-0.046075907555024845,"104":-0.05680958481578486,"105":-0.03661250597797217,"106":0.11694358300951524,"107":-0.04867247428463836,"108":-0.008877330646582474,"109":0.04557057361291843,"110":-0.07108090537358548,"111":-0.03985265932948158,"112":0.10376242162974922,"113":0.02984197351353228,"114":0.03073744376687655,"115":0.006923834612965817,"116":-0.12665936341921194,"117":0.09747356986023148,"118":-0.03190533310515242,"119":-0.12271165708129146,"120":-0.01675617103775991,"121":0.05510726321953395,"122":0.20141242982293397,"123":-0.0032122855142917833,"124":0.04633067177647167,"125":0.029206793888233166,"126":-0.02090512603905795,"127":-0.030668549253686016,"128":0.1621729836135166,"129":-0.045187281738240735,"130":0.034690340579992825,"131":0.008346000717133815,"132":-0.07281870765498753,"133":0.010512305221646938,"134":0.01001903285925857,"135":-0.029880971256572603,"136":0.017348613898643173,"137":0.049059415656164146,"138":0.01843549777520602,"139":-0.001005854897436239,"140":0.03128789531873486,"141":-0.054399158613488645,"142":-0.010310299188482887,"143":0.026797369330320835,"144":0.13763404985843708,"145":0.09597010172974149,"146":0.031295525079299794,"147":-0.009242478542010511,"148":0.021778822992339374,"149":0.0755989605941804,"150":-0.0105550228559291,"151":-0.014901097955379633,"152":-0.02811322172804423,"153":-0.09597388944683587,"154":0.08679597032044592,"155":0.060216084931798974,"156":-0.06308746400568409,"157":0.056029419175952284,"158":-0.007969378853908278,"159":-0.08631818827183277,"160":0.008300823216722262,"161":0.011809051624861424,"162":-0.014607098954840346,"163":0.08686644363506345,"164":0.05530693607700076,"165":-0.16831070574998283,"166":0.03548129104705422,"167":0.07992423683348052,"168":-0.021774355198998938,"169":-0.0004015339546282896,"170":-0.007893854574308946,"171":-0.024929634787291377,"172":-0.07461102816902238,"173":-0.00794720647276051,"174":-0.01338054645731666,"175":0.06786233864709243,"176":-0.051088605372433815,"177":-0.07670818040597566,"178":-0.09453903363507728,"179":-0.1529369031515334,"180":-0.03376094086495624,"181":0.017825483447856512,"182":-0.07990113652466842,"183":0.08545784483420404,"184":-0.017591695402871643,"185":-0.05528218299298413,"186":-0.01245962098447817,"187":0.09898211339649189,"188":-0.05545494034673958,"189":-0.024802455579580777,"190":0.09589472972844182,"191":0.0635891911893272,"192":-0.012739007690318162,"193":0.08680100306263358,"194":0.0021553328640554707,"195":0.031928979012968726,"196":-0.0021998103234437674,"197":-0.10871870417353717,"198":0.10827216187919304,"199":-0.015543191087809851,"200":0.1466965767798717,"201":-0.016627525995339107,"202":0.0533533313968114,"203":0.1446983122656308,"204":0.027619758463576838,"205":0.11116410826249136,"206":0.054280027899832495,"207":0.00624987285515207,"208":0.035262675819047525,"209":0.03694627382255988,"210":0.14490606590581617,"211":0.08847712249994416,"212":0.07072574665688858,"213":-0.03960498890237102,"214":0.07742978824827647,"215":0.05263547992573174,"216":-0.012391457497168402,"217":0.11926778488425295,"218":-0.07764293143822401,"219":0.06230014660433169,"220":-0.09608719032077426,"221":-0.08954761803084482,"222":-0.04764378026110916,"223":0.02521999994641919,"224":-0.059565036914390135,"225":0.030035461583846314,"226":-0.006915317713335361,"227":0.024933956556078943,"228":-0.02853999868710381,"229":-0.01475490853476324,"230":-0.04598377265970401,"231":0.07288693350361954,"232":0.03781808931390711,"233":-0.011679062621325419,"234":-0.12257410005417167,"235":-0.12216275819760965,"236":-0.0019956154298054313,"237":0.008327275893917185,"238":0.030549854390420125,"239":0.03438359836025691,"240":0.09964007816047427,"241":0.01084162673094064,"242":-0.014537103211222249,"243":0.014779788785210924,"244":0.0485245185960704,"245":-0.06394328621178491,"246":0.0002908021595475555,"247":0.028506771613176364,"248":0.0493231005325334,"249":0.014526852987546551,"250":0.007000006545204259,"251":0.04385338661581731,"252":0.10771247902333281,"253":0.027163292753572092,"254":0.07142549844714566}},{"sx":1,"sy":1,"depth":255,"w":{"0":0.043867984415453344,"1":0.24434169651923807,"2":0.012512891254104971,"3":0.16371695981934548,"4":0.4869322310221913,"5":-0.045756387680452,"6":0.15552739415103176,"7":0.6178138577589535,"8":0.22171572382350682,"9":0.09029248940648482,"10":0.6862951814552174,"11":0.057668538275412747,"12":0.1039333990488344,"13":0.44570098522258406,"14":-0.011184562290535905,"15":0.059754717087502546,"16":0.24241877939507855,"17":0.08949423469469016,"18":-0.002717739063232336,"19":-0.0592145483656464,"20":0.1480463542230391,"21":0.19267277634362331,"22":-0.11455961360591273,"23":0.0782214757686102,"24":0.10613745666228713,"25":-0.05988329594822493,"26":0.016368688545412246,"27":0.1102302166049365,"28":0.1144574674528623,"29":0.06811882500496905,"30":-0.0022021841189138426,"31":0.4246364209711915,"32":0.03254096737413935,"33":0.045543916895213914,"34":0.4072788341252452,"35":0.004117861847749215,"36":-0.03599369058012794,"37":0.3240398846329529,"38":-0.11083337305276358,"39":-0.01215059114685333,"40":0.27689692858773535,"41":0.05496720719759139,"42":0.10270820125990768,"43":0.024052264688940582,"44":-0.021352876516019748,"45":0.08298823843563487,"46":0.05899376239474882,"47":-0.0025213017006705456,"48":-0.03607018146171973,"49":0.07905315376026223,"50":-0.0547557063594233,"51":-0.05553843096639665,"52":0.09162328266782832,"53":-0.14249089360340536,"54":-0.06854287626855524,"55":0.07116169138093817,"56":-0.0893303026761866,"57":-0.043720381023886604,"58":0.02637681426483233,"59":-0.18222936687801194,"60":-0.07093567087285801,"61":0.2263062659303819,"62":0.04779038811969472,"63":0.09856660897143876,"64":0.2604265081257665,"65":-0.04953297336904366,"66":0.02635522100843394,"67":0.18315993687359178,"68":0.019208582988062644,"69":-0.01670303131260941,"70":0.06571368895816175,"71":0.06758881126271173,"72":0.022332700232798007,"73":-0.136364715312091,"74":-0.01591346522025386,"75":0.14205317565178244,"76":-0.07195346221650029,"77":0.03727341879084178,"78":0.11016750141874646,"79":-0.06988726378289546,"80":0.05752407818431672,"81":0.08252333212744686,"82":-0.038446609977481366,"83":-0.008132806027581393,"84":0.12641739569337884,"85":0.03108489630995279,"86":-0.04383030253829219,"87":0.1855714914947362,"88":0.013659784597035695,"89":0.05644852448501527,"90":0.060674877270305044,"91":0.17663647915331426,"92":0.06290016863019354,"93":0.11492361859990396,"94":0.20713827875320115,"95":0.1292956113893612,"96":-0.013059984906242593,"97":0.07804012559549808,"98":-0.0370952351186467,"99":0.08337163178915498,"100":0.06332666753701671,"101":0.08468512587453601,"102":0.05596501135049784,"103":-0.050366000763996006,"104":-0.029077480311880847,"105":0.09471332018638866,"106":-0.005281262621064941,"107":-0.10815403239352352,"108":0.03845950695582826,"109":0.13967797699237275,"110":-0.029457330467657326,"111":0.006139126605662869,"112":-0.022477438666490577,"113":-0.06662256286898806,"114":-0.05806493148263868,"115":0.056804250599878585,"116":-0.12701738486992092,"117":0.06271396727881651,"118":0.050633081803381066,"119":0.04218877515079847,"120":-0.05506578478553373,"121":0.020409978711136346,"122":-0.04675762650211963,"123":-0.07847019119132718,"124":-0.06492401433959298,"125":-0.011333095488960582,"126":-0.00032222175624070117,"127":-0.05749804237766267,"128":0.003142216855945933,"129":0.08960902928362928,"130":-0.04538453054123486,"131":0.009139515949946192,"132":-0.02901957572763317,"133":-0.044460239796307074,"134":-0.00030518880575653427,"135":-0.027901684627100493,"136":-0.11889078442476235,"137":-0.07319822207004786,"138":-0.016868371541172305,"139":0.0817660814670658,"140":0.05554481334168639,"141":-0.1622559746255482,"142":0.005716752236124481,"143":0.09598359311525644,"144":-0.07382482310085443,"145":0.043142732429659894,"146":0.11794940411417235,"147":0.0696970328814071,"148":-0.01163319285795791,"149":-0.05050142064620781,"150":-0.06030205846479141,"151":-0.027867227515588525,"152":0.0779559500031534,"153":0.010833776755164967,"154":0.009504988147404896,"155":-0.1178040189041391,"156":-0.004807483563856528,"157":0.01707848269372113,"158":0.03736139217467135,"159":0.06034483249423426,"160":-0.08854329512548754,"161":0.019329399034098478,"162":0.16351690101323763,"163":0.04840111576414789,"164":0.033192316374058034,"165":0.052287946790857395,"166":-0.026936453751797568,"167":0.03491244101044236,"168":-0.05878018873033535,"169":-0.07459012670689957,"170":0.03790806744674738,"171":0.07392717266506883,"172":0.11385301433041896,"173":-0.04391593411083124,"174":-0.016879843385612346,"175":0.05760658698280193,"176":-0.04814256707814313,"177":0.09975430355853246,"178":-0.050002952902866424,"179":-0.0775746052922155,"180":0.019460496005114233,"181":-0.09049295846163585,"182":-0.08334909728792597,"183":0.07460036413415273,"184":-0.155536527780055,"185":-0.035123601931016254,"186":-0.01600873772975993,"187":0.044307104069650174,"188":-0.035479971817404976,"189":0.01792196807313388,"190":0.07487589401110438,"191":0.03477302627803091,"192":-0.011358152925721357,"193":-0.03406717055383191,"194":0.016790743134127012,"195":-0.06168384741960671,"196":0.01993059182814792,"197":-0.02456447192579745,"198":-0.005886197598323391,"199":0.03409917891155514,"200":-0.2159713535885035,"201":-0.07843827828924373,"202":0.0264069485612769,"203":-0.09819732984727611,"204":0.04040375873549688,"205":0.08674240030050517,"206":-0.03360467611945976,"207":-0.09517880957908186,"208":0.03437925791538975,"209":-0.045140654070661757,"210":-0.012656527160099539,"211":0.028269493768691843,"212":0.1713640994867018,"213":-0.04975901933454341,"214":-0.1384162423458669,"215":-0.03959517561352832,"216":0.09177098962057564,"217":0.0691329765848875,"218":-0.09778583327938697,"219":-0.0879830287424031,"220":0.07031680423172967,"221":0.09937063780325898,"222":-0.03146551204064773,"223":-0.03608421476080254,"224":-0.03701620966129502,"225":-0.038066595828546886,"226":0.025784031524798814,"227":0.09308339056816632,"228":0.020877146889588714,"229":-0.03551328210091094,"230":0.0997891372845133,"231":0.021208434401225922,"232":0.049758017091065,"233":0.06801030714456757,"234":0.09220840876787147,"235":-0.039702729059022134,"236":-0.08865762597958773,"237":-0.003874496810317617,"238":0.0005440183301381406,"239":-0.05528125722407449,"240":-0.024989485861439387,"241":-0.0575602435249485,"242":0.040938534528650254,"243":-0.037707891970777695,"244":0.039731236690771964,"245":-0.04797704374740586,"246":0.05696808458084055,"247":-0.08916286442654117,"248":-0.0012013463440096555,"249":-0.02696170038672036,"250":-0.022034300925976465,"251":0.011154352595247535,"252":0.013734640977450112,"253":-0.0051112550673788806,"254":-0.006727108131202981}},{"sx":1,"sy":1,"depth":255,"w":{"0":-0.017984784206882754,"1":0.24529036864841453,"2":-0.002131889036087611,"3":0.024840874899182453,"4":0.36827343498652654,"5":0.08795955179865426,"6":-0.04740301073358863,"7":0.47809724404353526,"8":0.02901796746110648,"9":0.06989708625525279,"10":0.3598741497425731,"11":0.16795325736464362,"12":0.028794865430761405,"13":0.32725323485078855,"14":0.07798153387909088,"15":-0.0633948704309292,"16":0.10971897309564396,"17":0.06000393669477573,"18":-0.018312819961717373,"19":-0.017474152722211773,"20":-0.04159259908775584,"21":0.009461017891335285,"22":0.04402318281975815,"23":0.21950661905579827,"24":-0.15644973176005972,"25":-0.02593659583920841,"26":0.17916680970307186,"27":0.018584403087403945,"28":-0.01622786098512174,"29":0.08142329964368189,"30":0.013686019237410125,"31":-0.0040710445976154894,"32":0.09507264015492779,"33":-0.06493698397213629,"34":0.09096052630721134,"35":0.09295170159649425,"36":0.1223529537886936,"37":0.11030908901692335,"38":0.0673866708792027,"39":-0.08548113577534144,"40":0.08902144828677146,"41":0.10479359458568883,"42":0.02580589284154926,"43":0.051663078860808405,"44":0.046161723473482213,"45":-0.029853641429764134,"46":0.0713951172530513,"47":-0.013213744215202303,"48":0.02587232317724102,"49":-0.10146203692236012,"50":0.03799012700412926,"51":-0.02710085184218192,"52":0.03528326756236145,"53":0.10063543281318132,"54":-0.10077421161853058,"55":0.04393693352675169,"56":-0.010885810213803616,"57":0.0522099949666367,"58":0.02423047829525597,"59":0.036255487453528044,"60":-0.003987833166150633,"61":0.13986985850435835,"62":-0.04314354838371637,"63":0.029124468902139492,"64":0.12376636602683085,"65":-0.03909692119687369,"66":0.03217482851640422,"67":0.1801251334032931,"68":0.03655102393547991,"69":-0.000667364735572342,"70":0.016917766407677507,"71":0.0359120164310481,"72":-0.045231876473839104,"73":-0.005631773514322823,"74":-0.05270022216831622,"75":0.11177530709998251,"76":0.0033813835279033625,"77":0.146288886374377,"78":-0.06869248597058787,"79":-0.00706761013912145,"80":0.1127625228887573,"81":-0.0492143647869999,"82":-0.012980541851805902,"83":0.021970753516506382,"84":-0.1409754461527081,"85":-0.04603196814869437,"86":0.10574223168227632,"87":0.039858083024842984,"88":0.073020034917016,"89":0.1269041546232219,"90":-0.07000438975428776,"91":-0.035177891042084984,"92":-0.08095840797425885,"93":0.000518881020284127,"94":-0.07414441587470688,"95":-0.05090442686984925,"96":-0.09825136140893889,"97":0.000538729990138107,"98":0.06495286604406876,"99":0.029549045133678432,"100":0.02507896043811966,"101":0.008999804123229017,"102":0.013707297903334203,"103":-0.04664468831181701,"104":0.09716534726488617,"105":-0.11166617364386701,"106":0.04472360497607682,"107":-0.14438354512258708,"108":-0.07869098818987533,"109":-0.014224764850941467,"110":0.049598750885529966,"111":-0.1633108258533875,"112":0.017289693815160753,"113":-0.0402089543250777,"114":-0.1363682183788347,"115":0.06932978719145967,"116":0.11039905469443066,"117":-0.048823318391662165,"118":-0.00963318640454006,"119":-0.07911317638224277,"120":0.01781007210588982,"121":-0.10476321254228282,"122":0.035161976379945246,"123":0.02864849035339699,"124":-0.026413500262031014,"125":-0.02842125851745368,"126":0.006165704098850678,"127":0.13047389724016453,"128":0.028705464106438275,"129":0.0004050550305502817,"130":-0.14479280809459838,"131":0.05222969728986573,"132":0.08476037035934998,"133":0.05403074415900141,"134":-0.06931623728870637,"135":-0.035813404223730756,"136":0.08554554729057753,"137":0.0394644282965666,"138":0.000012814553743177434,"139":-0.05183834901776167,"140":-0.07564558975217794,"141":0.029425848305486935,"142":0.008734506595962772,"143":-0.022788406138826024,"144":-0.0807850204960337,"145":0.10058417666004062,"146":-0.10168471623764039,"147":-0.03258519108759271,"148":0.02976548426415834,"149":-0.019628995967102703,"150":0.001543370765506592,"151":0.048114484144136785,"152":0.008621470653450765,"153":-0.0015297150504561955,"154":0.1367608522857641,"155":0.02420834665345578,"156":-0.07952859380817381,"157":0.01912091549632233,"158":-0.026179991739207088,"159":0.10670265497884368,"160":0.12060411081797187,"161":-0.13907028082038603,"162":0.07138480358522002,"163":-0.03739875917567284,"164":-0.03749805405770918,"165":-0.0218040241008294,"166":0.039494152946387126,"167":-0.07235485678808783,"168":0.11079612075892836,"169":-0.0803810957042155,"170":0.02329651720389761,"171":-0.008326140409596944,"172":0.08670730480905814,"173":0.05712810565505505,"174":-0.0509185638156732,"175":-0.05070666545572702,"176":-0.10071505297823845,"177":-0.014046171482263824,"178":0.0006907532069329766,"179":-0.018534886729313162,"180":0.16932365784059292,"181":-0.00021211751959355547,"182":-0.07182665426731531,"183":0.0446522646869324,"184":0.03902472303028555,"185":0.04726709632649579,"186":0.03880906488685161,"187":0.05517216036256747,"188":0.046173632331522454,"189":0.04293555331474582,"190":0.006986288350867831,"191":0.014108656268526714,"192":-0.044356258431691026,"193":-0.08648048299047181,"194":0.015058460918060755,"195":0.024600172209918364,"196":0.010623738933235738,"197":0.08052903390870865,"198":0.05862309611004971,"199":0.01105756198061017,"200":-0.044414787966878796,"201":-0.001616353098061302,"202":-0.06553893220602128,"203":-0.08465327681709303,"204":0.09674662704297748,"205":-0.0628969283229385,"206":-0.10993653692090279,"207":-0.132200370482518,"208":-0.2733478385952539,"209":-0.02569095457513654,"210":-0.08003672841871311,"211":-0.03646876506054236,"212":0.08135591716433117,"213":0.03318653453459661,"214":-0.04221074198846803,"215":-0.03362495273568022,"216":0.05559241660343917,"217":-0.022408560633296333,"218":0.025983751611831005,"219":-0.03891232812220268,"220":0.00717147911012032,"221":-0.035993608167033043,"222":0.11061470624482697,"223":-0.08390202163020649,"224":0.0756758007120428,"225":0.05362823086339468,"226":-0.009462021472551945,"227":0.0218477638266206,"228":0.02308864853652191,"229":-0.05068841658143054,"230":-0.06565897972669885,"231":0.05071951486994026,"232":-0.027795423325316034,"233":-0.006959571663234171,"234":0.04451715060427269,"235":0.014026112439723548,"236":0.11555537027900853,"237":-0.007094886312832983,"238":0.07399319229150665,"239":0.10034849169721634,"240":0.04778658039708868,"241":-0.0742535353466112,"242":-0.00311642653788981,"243":0.04010835412815669,"244":-0.10645526257210697,"245":-0.06355268803594731,"246":-0.017740149858277415,"247":-0.02172571840460988,"248":0.11744176504491288,"249":-0.019454716725553753,"250":0.03529431521822903,"251":0.012367971393863574,"252":0.0034303962990674813,"253":0.00929460677864005,"254":-0.02546294295391987}},{"sx":1,"sy":1,"depth":255,"w":{"0":-0.03614996395920425,"1":-0.02054218198145996,"2":0.035638657017213804,"3":0.0515113116267213,"4":0.024387235711998974,"5":0.04956316863131776,"6":-0.0948074461249035,"7":0.005718653734065709,"8":0.008979245106929844,"9":-0.11405987958032841,"10":-0.008943880402238114,"11":0.04361949936547795,"12":0.14472564392565188,"13":0.028438160132182654,"14":0.007283291320777094,"15":0.02355598355431285,"16":0.06101106233303097,"17":0.02836233880035226,"18":0.022931665635204646,"19":0.013570685501475359,"20":0.09296729869405165,"21":0.04119102827574091,"22":-0.19523815609652137,"23":-0.10003908213210584,"24":0.020842144712973226,"25":-0.04188064334428658,"26":-0.04571894928298741,"27":0.04102357190352801,"28":0.027760976387991756,"29":0.057208249351703544,"30":0.048031277089612925,"31":-0.04948010175448765,"32":0.06546728254345431,"33":-0.1690321851730357,"34":0.004636855866891454,"35":-0.0705677137635855,"36":-0.0443035165480422,"37":0.06200849010424758,"38":-0.017860139745870817,"39":-0.017113898414693688,"40":-0.0763355768632192,"41":-0.05107808968676106,"42":-0.0739789839824384,"43":-0.00011078751744221732,"44":0.04838022728465906,"45":0.06068336718832053,"46":0.05686478237394263,"47":-0.057027730341303734,"48":0.0006944075703142185,"49":-0.0497252110169848,"50":0.02330763371422219,"51":-0.09189238733183351,"52":-0.06624362629596912,"53":-0.08593497547327038,"54":0.03200628569614094,"55":0.12027718685070166,"56":-0.03990546841224407,"57":0.004291854264219124,"58":-0.030746485151401094,"59":0.0008854667403145115,"60":-0.015931970793554337,"61":-0.08037721474419392,"62":-0.014139965570546158,"63":0.05355623040645513,"64":-0.006848725209481242,"65":0.08804427283402168,"66":0.028657412810771242,"67":-0.005617608384647696,"68":0.08434807566546153,"69":-0.08862572160687891,"70":0.10575218849746475,"71":0.02500797579013614,"72":-0.013993512169025703,"73":0.016412393821638564,"74":0.05779776847439342,"75":-0.04179200844402033,"76":-0.0012871694183622935,"77":-0.00524288550367378,"78":-0.07110005725511573,"79":-0.01902523201880544,"80":-0.0914039423366688,"81":0.06893140363666035,"82":-0.07133491610352452,"83":-0.05460028613555716,"84":-0.044546153563907516,"85":0.010599760484129462,"86":0.05450411206574294,"87":0.006951921020439343,"88":0.08138538472439519,"89":0.006961909685205518,"90":-0.05412741169132749,"91":0.049686272243667964,"92":0.0020116251310683957,"93":-0.03836397473366906,"94":-0.07588112624415473,"95":-0.036189205441357605,"96":-0.08033185075767808,"97":0.022183294529323824,"98":-0.029631116711063922,"99":-0.04984306631863156,"100":0.11398765132731255,"101":-0.10939023117425518,"102":0.17453339935622608,"103":0.01846045103474772,"104":-0.04621271113119931,"105":0.024971187645217587,"106":-0.03716305357945136,"107":0.010404184294805677,"108":-0.07587089954085681,"109":0.07172317475299585,"110":-0.015690575947213414,"111":-0.05304567945776729,"112":-0.06888054371505677,"113":-0.04077038316475825,"114":-0.08324251235478254,"115":0.004118207807504556,"116":-0.014951830852548899,"117":0.07471986753166344,"118":0.11609465845950087,"119":0.005172759349943469,"120":0.04742598003388239,"121":-0.09137961578809901,"122":0.12301030526296794,"123":-0.019028130198311326,"124":0.10693433209175646,"125":0.002848587759918681,"126":0.05564388251621327,"127":-0.08410100220581682,"128":0.03997146105905529,"129":0.029954436206690183,"130":-0.043094257008535745,"131":-0.11603838829522965,"132":-0.0045252855418698645,"133":-0.03853792892680164,"134":-0.016938915830137076,"135":0.12907321624560528,"136":-0.05022378253421543,"137":0.17041215543849772,"138":-0.04233081585080091,"139":0.06528535620647485,"140":-0.14727859335064925,"141":-0.0784102276699025,"142":-0.06349949555299425,"143":-0.06590944272042346,"144":-0.011651345977743059,"145":-0.050418861314776194,"146":0.020225203847027133,"147":-0.025222470972408175,"148":0.059351228089296,"149":0.0028777305703036947,"150":0.024497271753105666,"151":-0.01814925936172177,"152":0.02798772891006691,"153":-0.09475374724997682,"154":-0.04403855188171831,"155":-0.01740957344683391,"156":-0.02168752876592468,"157":-0.04535891152542951,"158":0.09257739915824073,"159":0.09478219881529422,"160":0.05744159273869951,"161":-0.024633516550840295,"162":0.032056040961067275,"163":0.023488788774120386,"164":0.013297238567927024,"165":-0.02338200965373227,"166":0.023684781227254283,"167":0.06083076811390303,"168":-0.053554497754493134,"169":-0.03760599457926887,"170":0.07706739239187702,"171":-0.025021119996338152,"172":0.033235123786252076,"173":-0.035343855320462365,"174":-0.04665097104677719,"175":-0.059864356966093046,"176":-0.05321136367763204,"177":-0.0014167664049250434,"178":0.08025587787540021,"179":0.058093304187145534,"180":-0.03815193151714215,"181":0.037119311888351714,"182":-0.0394300359634469,"183":0.010985156511996769,"184":-0.07246330934252991,"185":-0.09245669744463947,"186":-0.06896904667421423,"187":-0.04368472617054149,"188":-0.10122702371877268,"189":0.0669876329050929,"190":0.1533674719140243,"191":-0.10143487465530854,"192":0.018790604841307804,"193":0.016889541948001945,"194":0.01377748442534112,"195":0.018656176396759993,"196":-0.020835712622003306,"197":-0.0042613698152159235,"198":0.018871053745042637,"199":-0.03064065321777579,"200":-0.10447301303268007,"201":-0.05692967585579012,"202":0.11030270195405455,"203":-0.020774808468428392,"204":-0.03913937734428502,"205":0.04803379057075084,"206":0.012623567795720922,"207":0.022478325522325676,"208":0.06443366062932128,"209":-0.04844637217225669,"210":0.030054896165640745,"211":0.0736049803422592,"212":-0.01469495156629388,"213":0.01788207612509444,"214":-0.05369982060709948,"215":0.002489234133414908,"216":-0.049433993310775984,"217":-0.0345855218930977,"218":0.047810448292496435,"219":0.11517131954177015,"220":-0.06602621673548505,"221":-0.024614788625962388,"222":-0.11897821871837225,"223":-0.08422442899862627,"224":0.00888616187945541,"225":0.032535324934643416,"226":-0.1054682869256058,"227":-0.011621291716254804,"228":0.00011767323551737787,"229":0.0009741181305750531,"230":-0.08804519248867047,"231":0.008839371009156962,"232":0.16467597981691495,"233":0.12022568530638796,"234":-0.0021993957043192425,"235":-0.03924858067066799,"236":-0.07065811702252779,"237":0.05421496057074889,"238":-0.018955690732044127,"239":0.08151330192981882,"240":-0.06809085974761252,"241":0.0017391599261277475,"242":-0.040594234240096304,"243":0.08515203059524638,"244":-0.03874358727998054,"245":-0.07935567701768849,"246":-0.0483000959436523,"247":0.03654611399944587,"248":0.14100608604491247,"249":-0.05887110864430546,"250":-0.012774362138545612,"251":0.07297908765548906,"252":-0.09220452900604027,"253":-0.056476891876344575,"254":-0.018923559253607537}}],"biases":{"sx":1,"sy":1,"depth":5,"w":{"0":0.10843418685880295,"1":0.10133112412738847,"2":0.09806267220931597,"3":0.10001893367979109,"4":0.09765167292921452}}},{"out_depth":5,"out_sx":1,"out_sy":1,"layer_type":"relu"},{"out_depth":5,"out_sx":1,"out_sy":1,"layer_type":"fc","num_inputs":5,"l1_decay_mul":0,"l2_decay_mul":1,"filters":[{"sx":1,"sy":1,"depth":5,"w":{"0":-0.6117905697763528,"1":0.4631295823249674,"2":0.7536189446176481,"3":0.49091584221373213,"4":0.08488148314771428}},{"sx":1,"sy":1,"depth":5,"w":{"0":-0.830965359355097,"1":0.24149251619197418,"2":-0.12415636164250528,"3":-0.29746949962146535,"4":0.6929946535495413}},{"sx":1,"sy":1,"depth":5,"w":{"0":0.21880686901901808,"1":0.447221258898997,"2":-0.40815456408701434,"3":0.14651076623761577,"4":0.16034881338341542}},{"sx":1,"sy":1,"depth":5,"w":{"0":-0.3706579592967674,"1":0.15808191835956334,"2":-0.2738590890457103,"3":0.7399277963528068,"4":0.31201383452374215}},{"sx":1,"sy":1,"depth":5,"w":{"0":0.04598305284808703,"1":-0.03427255561507794,"2":0.040146187421605216,"3":-0.1766857460335784,"4":-0.7250532003778364}}],"biases":{"sx":1,"sy":1,"depth":5,"w":{"0":0.093048430129921,"1":0.07657588967186281,"2":0.12772372662122455,"3":0.10141944516041054,"4":0.09017694240321653}}},{"out_depth":5,"out_sx":1,"out_sy":1,"layer_type":"relu"},{"out_depth":5,"out_sx":1,"out_sy":1,"layer_type":"fc","num_inputs":5,"l1_decay_mul":0,"l2_decay_mul":1,"filters":[{"sx":1,"sy":1,"depth":5,"w":{"0":1.027835639904923,"1":-0.6750648263926581,"2":-0.2733289806394175,"3":0.31496596432300683,"4":-1.0083443287503087}},{"sx":1,"sy":1,"depth":5,"w":{"0":0.5425687504320312,"1":0.28320574453249986,"2":-0.4245163077576666,"3":0.15264355195856802,"4":1.0568273818189873}},{"sx":1,"sy":1,"depth":5,"w":{"0":-0.42198607298648355,"1":0.11057341839886359,"2":0.5726924837656198,"3":-0.4432353514722285,"4":0.7326880984734542}},{"sx":1,"sy":1,"depth":5,"w":{"0":-0.47793106074415437,"1":-0.47311147619316163,"2":-0.38313002908530464,"3":-0.6510359146380453,"4":-0.16273432608978436}},{"sx":1,"sy":1,"depth":5,"w":{"0":-0.2164968399131108,"1":-0.3170270908680946,"2":0.32410341111854213,"3":0.6260445688647027,"4":0.8976743549742331}}],"biases":{"sx":1,"sy":1,"depth":5,"w":{"0":0.12331997964571827,"1":0.06674550904012848,"2":0.16905786698252587,"3":0.11286021110393996,"4":0.12111162016494144}}},{"out_depth":5,"out_sx":1,"out_sy":1,"layer_type":"relu"},{"out_depth":5,"out_sx":1,"out_sy":1,"layer_type":"fc","num_inputs":5,"l1_decay_mul":0,"l2_decay_mul":1,"filters":[{"sx":1,"sy":1,"depth":5,"w":{"0":0.4911437936457477,"1":0.17275288640748113,"2":-0.40974567798619155,"3":-0.2903452617334868,"4":-0.17608365561632405}},{"sx":1,"sy":1,"depth":5,"w":{"0":0.7537577746154405,"1":-0.5325206253928159,"2":0.093979036334626,"3":0.8138484226904454,"4":-0.4572200713029267}},{"sx":1,"sy":1,"depth":5,"w":{"0":0.18070137953068205,"1":0.45663320704109456,"2":-0.09734044118939007,"3":-0.9802618756348406,"4":-1.0080249062499327}},{"sx":1,"sy":1,"depth":5,"w":{"0":0.4464902986739616,"1":0.24116106447049562,"2":-0.34530628551209086,"3":0.48615386636386076,"4":-0.3110708452571477}},{"sx":1,"sy":1,"depth":5,"w":{"0":0.5582672886556365,"1":0.03505788471964021,"2":-0.5395955185377868,"3":0.5561602424431004,"4":0.2647654242145445}}],"biases":{"sx":1,"sy":1,"depth":5,"w":{"0":-0.06847966346011952,"1":0.10088161716531265,"2":-0.09293095815604481,"3":0.07156890807738155,"4":-0.03856405164407438}}},{"out_depth":5,"out_sx":1,"out_sy":1,"layer_type":"regression","num_inputs":5}]});
}