
//<![CDATA[

// a few things don't have var in front of them - they update already existing variables the game needs
lanesSide = 1;
patchesAhead = 10;
patchesBehind = 5;
trainIterations = 20000;

var num_inputs = (lanesSide * 2 + 1) * (patchesAhead + patchesBehind);
var num_actions = 5;
var temporal_window = 3;
var network_size = num_inputs * temporal_window + num_actions * temporal_window + num_inputs;

var layer_defs = [];
layer_defs.push({
    type: 'input',
    out_sx: 1,
    out_sy: 1,
    out_depth: network_size
});

layer_defs.push({
    type: 'fc',
    num_neurons: 5,
    activation: 'relu'
});

layer_defs.push({
    type: 'fc',
    num_neurons: 5,
    activation: 'relu'
});

layer_defs.push({
    type: 'fc',
    num_neurons: 5,
    activation: 'relu'
});

layer_defs.push({
    type: 'regression',
    num_neurons: num_actions
});

var tdtrainer_options = {
    learning_rate: 0.001,
    momentum: 0.0,
    batch_size: 64,
    l2_decay: 0.01
};

var opt = {};
opt.temporal_window = temporal_window;
opt.experience_size = 3000;
opt.start_learn_threshold = 500;
opt.gamma = 0.7;
opt.learning_steps_total = 10000;
opt.learning_steps_burnin = 1000;
opt.epsilon_min = 0.0;
opt.epsilon_test_time = 0.0;
opt.layer_defs = layer_defs;
opt.tdtrainer_options = tdtrainer_options;

brain = new deepqlearn.Brain(num_inputs, num_actions, opt);

learn = function (state, lastReward) {
    brain.backward(lastReward);
    var action = brain.forward(state);

    draw_net();
    draw_stats();

    return action;
}

//]]>
    
/*###########*/
if (brain) {
brain.value_net.fromJSON({"layers":[{"out_depth":195,"out_sx":1,"out_sy":1,"layer_type":"input"},{"out_depth":5,"out_sx":1,"out_sy":1,"layer_type":"fc","num_inputs":195,"l1_decay_mul":0,"l2_decay_mul":1,"filters":[{"sx":1,"sy":1,"depth":195,"w":{"0":0.04555246585648588,"1":0.04463751991595788,"2":0.13586558318330258,"3":-0.0112299101861762,"4":0.03550560388721737,"5":-0.01700180321049479,"6":0.0045308581418040585,"7":-0.02484843386764357,"8":-0.10219808687169432,"9":0.007703583844611851,"10":0.17581920619922303,"11":-0.08758065622665144,"12":-0.04443673613085061,"13":0.10357878858507592,"14":0.09658074753323762,"15":0.029344853100753552,"16":-0.0953241189602128,"17":-0.05749817806585886,"18":0.08464132720275012,"19":-0.05257532165398902,"20":0.034525195483146344,"21":-0.004324055952194161,"22":0.0029010937851913898,"23":-0.07482669765968297,"24":-0.03814766052595514,"25":0.15070584277385388,"26":0.053228168046445326,"27":0.003098090287265403,"28":0.05592660129690734,"29":0.022199442898939097,"30":-0.1614263032512035,"31":-0.11685421968042665,"32":0.043155058143868594,"33":0.015221163736757411,"34":-0.04615246015809542,"35":0.05790855251869956,"36":-0.07196782159231985,"37":-0.07725799182363734,"38":-0.10759549739488003,"39":-0.055943846939088576,"40":-0.15414432050241442,"41":-0.022801501888359457,"42":-0.030054826266190483,"43":-0.05372698882472963,"44":-0.0413383441095836,"45":-0.12113619968595825,"46":-0.0036661182646823658,"47":0.007548018435594255,"48":0.005536767187982066,"49":0.11792600588710608,"50":-0.02605451301408227,"51":0.06005658699444463,"52":-0.016186800589773273,"53":0.04870051434324507,"54":0.04489376799481255,"55":-0.105522090268276,"56":-0.012513243792747701,"57":0.07667639215383608,"58":-0.0890120810634828,"59":-0.08308853573139396,"60":-0.060235963024934364,"61":-0.12036089223838986,"62":-0.06047384613597621,"63":0.06812748546115842,"64":0.04471624460196365,"65":-0.0023634944019522526,"66":0.05975643738737136,"67":-0.014222677805717515,"68":0.014785353365611882,"69":0.13322808211768059,"70":-0.024500601049930234,"71":-0.02809581576290062,"72":-0.00719867102549968,"73":-0.10913575866522554,"74":0.004921277867747846,"75":0.02296677618318975,"76":-0.07739365251312995,"77":0.05118030524585206,"78":-0.04739632340155272,"79":0.07457818179215296,"80":0.08515745896681494,"81":0.11087049737741554,"82":-0.04350404922317948,"83":0.01071350699183255,"84":-0.07786249095638485,"85":-0.08508037640992575,"86":-0.08704851577018988,"87":-0.10750081718089385,"88":0.008671883770282735,"89":0.10154491729675409,"90":0.010752631165575212,"91":-0.13219830585611786,"92":-0.008158660165486886,"93":0.019107043097424708,"94":-0.014080667385977998,"95":0.08139839542976353,"96":-0.0007039157800617696,"97":0.037830669380094994,"98":-0.00905769530153701,"99":-0.03213555570290465,"100":-0.03342493131841813,"101":0.051627109279507796,"102":-0.03439057104835975,"103":-0.005895852135914192,"104":-0.0287063750873887,"105":0.008979553694323801,"106":-0.0017667698588946419,"107":0.11233488952959758,"108":0.028265331217426075,"109":-0.005487888808486506,"110":0.04416198428875139,"111":0.029991819009583875,"112":0.046635142378819626,"113":-0.03672493616854271,"114":-0.08790100271228449,"115":-0.05259426782180865,"116":0.004049782236669251,"117":-0.008575349006361838,"118":0.11219400147537174,"119":-0.1424112487466388,"120":0.07197113579438055,"121":-0.04412519451010977,"122":0.058027585068873344,"123":-0.04376366317907937,"124":0.026025960153222723,"125":0.09602380217718148,"126":-0.13168870229480595,"127":-0.025121669995114764,"128":0.0404252257450357,"129":0.0060858449539560305,"130":-0.0964568662273498,"131":0.07523912964810024,"132":-0.03544248203885577,"133":0.029234091873638644,"134":-0.15539670328169464,"135":-0.07593177055574458,"136":0.02771371370455668,"137":-0.05739631961351246,"138":-0.055266227087462816,"139":-0.07713420007680043,"140":0.03907585259040881,"141":-0.018499079304814633,"142":-0.12354913342553159,"143":0.03975879395671819,"144":0.015947439191871766,"145":-0.014703937042940122,"146":-0.05984955341717105,"147":-0.012527815817854691,"148":0.022090866503123543,"149":0.008129076543342852,"150":0.0604367553024975,"151":-0.017116630538856974,"152":-0.006373548140254633,"153":-0.12643931055993,"154":0.012207950199606117,"155":0.043474352868605126,"156":-0.07276955930801328,"157":0.0003780967877990672,"158":0.11568823473775436,"159":0.11614270871787248,"160":-0.01995525869004588,"161":0.12715468684025968,"162":0.1064269952892746,"163":-0.05122897923957239,"164":0.049365405945691644,"165":0.1043487565350625,"166":-0.054628603163029615,"167":0.01615708186493008,"168":-0.07315266130478103,"169":0.1320531538381619,"170":0.09672551091779241,"171":-0.14720070342739303,"172":-0.14671389914300823,"173":0.03036410460586729,"174":-0.0018217652571159374,"175":0.08781938386770977,"176":0.012486833702629773,"177":0.13986491601048595,"178":0.045729860564383544,"179":-0.09895071327272664,"180":-0.04484546512409703,"181":0.014124006830425676,"182":-0.003887024669665701,"183":0.08731165442352022,"184":-0.014648675750574292,"185":0.0017455273582173965,"186":0.18541679070114075,"187":0.026536888130506746,"188":0.004750894802988843,"189":0.01321582391221976,"190":0.02835053243668953,"191":-0.1403186254823571,"192":0.003241134138995594,"193":-0.002002680485826336,"194":0.00459171031662474}},{"sx":1,"sy":1,"depth":195,"w":{"0":0.05938804375761952,"1":0.19360274347925235,"2":0.020553178623665087,"3":-0.16233546268215635,"4":-0.0439266302952987,"5":-0.001564710926399279,"6":0.0745451296200242,"7":-0.05303034498343733,"8":-0.0005175781148363896,"9":-0.01411601348872375,"10":-0.03247920595208156,"11":0.03877512730571013,"12":0.017112921914946344,"13":-0.05161084235313345,"14":-0.07067006593108063,"15":-0.10083299250181679,"16":-0.024534150509386902,"17":0.053607169267926115,"18":0.08695031140623474,"19":0.019651464749361955,"20":-0.04812653447623666,"21":-0.06527197557442602,"22":0.021855664768340798,"23":0.07531173921690203,"24":0.08704320232071752,"25":-0.0064628330358032764,"26":0.06399669998733232,"27":0.019691697915037193,"28":-0.13933223831518093,"29":0.07466380635158265,"30":-0.057379950612398485,"31":-0.04263605119828138,"32":0.03454561633515565,"33":0.04902586236858858,"34":-0.09157514745493066,"35":-0.020352048635373616,"36":0.0857228466199478,"37":-0.00507257119807924,"38":-0.10699312718370795,"39":-0.007098719993940162,"40":0.04649015219337664,"41":0.014743073522473754,"42":-0.00021574670954404825,"43":-0.14277217096507727,"44":0.1223518871436405,"45":0.08737531531541329,"46":-0.07848214504629893,"47":-0.11024742443576191,"48":-0.044622619664269045,"49":-0.024175960012921445,"50":-0.09841395866823577,"51":-0.06790737382942255,"52":-0.0762009116238359,"53":0.025277598356760578,"54":-0.024189700116453872,"55":0.04727964719409542,"56":0.07933889540909027,"57":0.08342860708016467,"58":0.1329238846190924,"59":0.03729153824813819,"60":-0.022772524608232786,"61":0.03645897420535199,"62":0.07991139291878034,"63":0.02141435637198202,"64":-0.027755244345404082,"65":0.16878903270811238,"66":0.07575592973546381,"67":-0.05225410391847313,"68":-0.09344460154391504,"69":0.034601658762661164,"70":-0.10606891907860522,"71":0.057765222615164945,"72":-0.050723948147593595,"73":0.051695560681599834,"74":0.04283410235957776,"75":0.17503831210464166,"76":-0.00612068370634738,"77":-0.023080908995078097,"78":-0.042132782115304475,"79":-0.13836819626877875,"80":-0.0013976134010213576,"81":0.014216018594953838,"82":-0.18513783324442584,"83":0.05401235642264521,"84":-0.10932161383889967,"85":-0.04676154672870491,"86":-0.07920226975872412,"87":0.036392902649045336,"88":-0.07858291469281421,"89":-0.06137229972063193,"90":-0.06654859123988424,"91":0.04593249994230631,"92":-0.0429560585149199,"93":0.09490025074822254,"94":-0.046670165772821966,"95":-0.05772773572558806,"96":-0.06778275325205,"97":-0.1306598771348818,"98":-0.14111849550241407,"99":-0.09142483432583894,"100":0.012826381589717257,"101":0.04655171606195438,"102":-0.05698340459321325,"103":0.01135644618040662,"104":-0.10410341919117198,"105":-0.0011715011336139694,"106":-0.025459334765022625,"107":0.009161840853505944,"108":-0.09607291164872823,"109":0.029320247582143716,"110":-0.05818118218828017,"111":-0.04891525350445755,"112":0.11569077675687109,"113":-0.04542567371189678,"114":0.05909881045562949,"115":-0.011857739403780775,"116":-0.0059805054232235115,"117":-0.025316548441619742,"118":-0.03610814930430534,"119":-0.00877498954375239,"120":0.0490453134851671,"121":0.02229676678192768,"122":0.011459164235117279,"123":0.15025933289996318,"124":0.0352048307124415,"125":0.10919324817013958,"126":-0.16033709022247725,"127":0.0017877032256687195,"128":-0.08924404859950218,"129":0.009489775390040752,"130":-0.08335328531755548,"131":-0.0216986279104797,"132":0.018866865130100535,"133":-0.06331409638931192,"134":-0.14595239186818207,"135":-0.0993164197945159,"136":-0.08310445839175669,"137":0.005307252401637207,"138":0.07146465140423643,"139":-0.06666859191043627,"140":-0.030549527968511913,"141":-0.04859696322425522,"142":0.051864379131478296,"143":-0.04470269622549104,"144":-0.028039415748565194,"145":-0.017276964607928772,"146":-0.12195419117186886,"147":0.0005600191553244156,"148":-0.009819243808692795,"149":0.05953498411053204,"150":0.06428435138159526,"151":0.0338944839702739,"152":-0.02543423764749336,"153":0.1063803036418465,"154":0.006694361034328829,"155":-0.02681001167079269,"156":-0.060403980258760606,"157":-0.010888467650050406,"158":-0.08430524710558895,"159":-0.07717238491590582,"160":-0.030320784814778904,"161":0.10572016041530577,"162":0.04014710720506584,"163":-0.12446517793138108,"164":-0.08963550920808566,"165":0.1377725403115581,"166":0.15774187046304936,"167":-0.11068167688470597,"168":-0.055683236481189745,"169":0.09082131427781358,"170":-0.00421547336370649,"171":-0.04672693650046954,"172":-0.070171476750123,"173":-0.1463762504338846,"174":0.0069747189951593295,"175":-0.0032172535375541004,"176":0.006685429416368171,"177":0.026174014210843102,"178":0.07688796540693749,"179":-0.153257069709737,"180":0.04650628679121292,"181":-0.08616181485823503,"182":-0.12586752482278882,"183":-0.05051946211175872,"184":0.021232158737643017,"185":-0.008025044233391817,"186":-0.06024326486201472,"187":-0.009889206132069795,"188":-0.13893861218311218,"189":-0.02356443313803925,"190":0.02937741242501198,"191":-0.013129553929755325,"192":0.011032830885652158,"193":-0.018399741744164713,"194":-0.0218857517189476}},{"sx":1,"sy":1,"depth":195,"w":{"0":-0.020308769016461697,"1":0.21386254488742457,"2":-0.06157987085285249,"3":0.05913888131269829,"4":0.20376959412321166,"5":0.09797041320667316,"6":0.14413111541116724,"7":0.6240299423196329,"8":0.06419413999845712,"9":0.06263748209623345,"10":0.6524653109570508,"11":0.03474744847003437,"12":0.11684661063806714,"13":0.4426522711516309,"14":0.06737170084805502,"15":0.13568715362974396,"16":0.2838080115479555,"17":-0.11403608380921994,"18":0.12149275992483527,"19":-0.07159618002338206,"20":0.055618700638567976,"21":0.17422600130333996,"22":-0.04195748156836921,"23":0.19733992292829894,"24":0.09608504987419816,"25":0.055691029796009,"26":-0.03903472210560821,"27":0.10800424760225,"28":0.00117786762483542,"29":0.058150342304958906,"30":0.0649020236320198,"31":0.4608424699423227,"32":0.15310270231474393,"33":0.1426085720060423,"34":0.3840653909259471,"35":0.008522546482546682,"36":0.10895315418937197,"37":0.4042812697766764,"38":0.11167814164272702,"39":0.08776379631569091,"40":0.37571310416210213,"41":0.07148505484336674,"42":0.0920042553432255,"43":0.16544377604644517,"44":0.025404545000942164,"45":0.012781605571559197,"46":0.24747514214879912,"47":-0.006324058183302834,"48":-0.04058410721867887,"49":0.044877341309022725,"50":-0.017414173101515724,"51":0.0037176668860057324,"52":0.08608994098029417,"53":0.020126102574899444,"54":-0.016135508438423134,"55":0.08822071707790954,"56":0.1448817744972696,"57":0.14591961790852057,"58":0.11843387289172215,"59":-0.03337921716632397,"60":0.09878080834959124,"61":0.010739539787179017,"62":-0.0025256175696447424,"63":0.02149095173092432,"64":0.013037528102689606,"65":-0.003838008082130739,"66":0.09275946852801585,"67":-0.032991601039995225,"68":0.07582570419753153,"69":0.14580534547990517,"70":0.002120687216104135,"71":0.022628350807400714,"72":0.0587986637047262,"73":-0.012492057729895987,"74":0.11725400398634031,"75":0.0016736375518474626,"76":0.15138987508974822,"77":-0.02417582750173694,"78":0.06914913675175971,"79":0.13740099994905383,"80":-0.11235039719553419,"81":0.06525946166654584,"82":0.11685185143595023,"83":-0.02237574934941899,"84":0.026300804587495306,"85":-0.04164657927676323,"86":0.0063934762391729275,"87":-0.0857712172657196,"88":-0.003990374959892815,"89":0.029593210742519596,"90":-0.056060793014316566,"91":-0.07967928791012245,"92":-0.04871065054268491,"93":-0.06553174178590489,"94":-0.04567940647170833,"95":0.01752359234983715,"96":0.06155502970143484,"97":-0.06972371008322827,"98":-0.012491849955302435,"99":0.06827500226557191,"100":0.09398946913539687,"101":-0.02888128059387664,"102":0.054401350060769724,"103":-0.07147057624050192,"104":0.005472274298555283,"105":0.15799860671849877,"106":0.031605286374382355,"107":0.029835475463659902,"108":-0.07442069559879068,"109":0.024207920639309998,"110":-0.010546199490222959,"111":-0.058986660587895645,"112":-0.018164882514495845,"113":0.03010930858878914,"114":0.07734625844594163,"115":0.06852731941378534,"116":0.03906934998053364,"117":-0.062021600281465604,"118":0.07689731975190836,"119":0.07151253721961456,"120":-0.00501447427932149,"121":0.07032341163781021,"122":-0.02090656404433972,"123":0.027579617911340136,"124":0.011291135718430663,"125":0.010171321411322508,"126":0.05309070565312573,"127":0.0014963817684805409,"128":0.11761068725803613,"129":0.0061017737896589515,"130":-0.06765823129602588,"131":0.014237558829230258,"132":0.13278808952498405,"133":0.03435011835643983,"134":0.008284536028047544,"135":0.008788737722931601,"136":0.06307919568788697,"137":-0.08826753862749667,"138":0.08704983787740503,"139":-0.07466565878179332,"140":0.021167886914492055,"141":-0.035642806457707926,"142":0.008630351548794771,"143":-0.03389441775765513,"144":-0.029911687900055686,"145":0.08900598284391177,"146":0.12511689666728168,"147":-0.06030932559325882,"148":0.07412324623348406,"149":0.10576868792931512,"150":0.02298979158370786,"151":0.04228350171687926,"152":0.0704056816481616,"153":-0.11143622244465573,"154":0.022587331650179107,"155":-0.01656685429888951,"156":0.05523827162518629,"157":0.10271597841729502,"158":0.047601900144503245,"159":-0.01726514165028857,"160":0.02447271183110769,"161":-0.022159942858436497,"162":-0.03258783539017758,"163":0.009263593546265153,"164":0.08346850587939296,"165":0.03552582741746863,"166":0.016033723012061202,"167":0.07208350510114453,"168":0.03351564225257212,"169":0.008577644508203955,"170":-0.06710546470817172,"171":0.02301068471394759,"172":0.09928905964141682,"173":0.07085461717707751,"174":0.02804240761789053,"175":-0.06774458378901271,"176":0.07634286374553703,"177":0.022513550420509735,"178":0.03398085844177243,"179":-0.0005121996439803659,"180":-0.07148623722326547,"181":0.04437521617840878,"182":-0.06835157292234524,"183":0.053799607090008195,"184":0.05459538251918325,"185":0.038258723064004616,"186":0.13203234749826134,"187":-0.03311700576151002,"188":-0.01263583178364181,"189":-0.02663730063236428,"190":-0.029213016451780625,"191":-0.01889480804543497,"192":-0.04357482357308803,"193":-0.02255597142974952,"194":-0.032770846995517314}},{"sx":1,"sy":1,"depth":195,"w":{"0":-0.07549583400704035,"1":-0.17844621648566888,"2":-0.03486843687118899,"3":0.011150632335214013,"4":-0.3567862260066263,"5":-0.18370908366388966,"6":-0.07434890249991956,"7":-0.25140287981366827,"8":-0.006328063542524711,"9":-0.03278826031797599,"10":-0.13196233239801003,"11":0.08568279387619197,"12":0.07690007931606015,"13":-0.17570120304565479,"14":0.07950746510655703,"15":0.024848745753559973,"16":-0.09520660837123425,"17":-0.0011539549507258921,"18":0.02908369073910497,"19":0.03594504742991129,"20":-0.11636458871132832,"21":0.039500926156044155,"22":0.049912768697231526,"23":0.047254648913275805,"24":-0.11811970241195961,"25":0.040257891473959743,"26":-0.11012554196495317,"27":0.08692982090226573,"28":0.061944522564734796,"29":-0.10442875302949865,"30":0.06544261472629512,"31":-0.08143122381798583,"32":0.08639959953249801,"33":0.02490977974228489,"34":-0.043527730372375825,"35":0.08242758404129469,"36":0.04341111831953063,"37":-0.02788016080693555,"38":-0.08468047522782392,"39":0.05327047830602726,"40":0.06692622503606696,"41":0.055214530290980585,"42":0.01718381912372354,"43":-0.027596501403959094,"44":-0.06335473912928796,"45":-0.030769264026425658,"46":-0.12711737673351958,"47":0.004822407177794896,"48":-0.03651226529700909,"49":-0.009829346046156835,"50":-0.03606332810673957,"51":-0.04950131733680414,"52":-0.11254215732380608,"53":-0.04354327886957377,"54":-0.015642871784635803,"55":0.01020389437996202,"56":-0.07823420416051069,"57":0.03302083634675845,"58":0.008856044926904838,"59":-0.09143492912996397,"60":0.04276333887599714,"61":0.0891721528316883,"62":0.059311254989066656,"63":-0.027872395773052654,"64":0.09539081636594222,"65":-0.0470912882846235,"66":0.06974180185550471,"67":0.04654281830186686,"68":0.13024851660634498,"69":0.03459618472558281,"70":0.033519838624931,"71":-0.06521600558000319,"72":-0.0024342505152490173,"73":-0.04363445569581479,"74":0.021273462884825976,"75":0.07312234795699057,"76":0.009297225859902444,"77":-0.0016917029813785951,"78":0.027738648636282597,"79":-0.06799953547255816,"80":-0.030381408811561355,"81":0.12316207141578317,"82":-0.020342100405406148,"83":-0.05244048000678466,"84":0.06736432905878656,"85":-0.022803011341542407,"86":0.06393304714517363,"87":0.032763437781278444,"88":0.033528799668357756,"89":0.10259852575154779,"90":0.010037584426009811,"91":-0.024972026901893044,"92":0.1279674636546537,"93":0.042804341418319486,"94":0.08103035285744739,"95":0.022727765337849135,"96":-0.07660679810422479,"97":-0.023411469341878585,"98":0.14510191973928105,"99":0.027067588745607503,"100":0.14220190153074894,"101":0.13108954084177382,"102":-0.08381309028791953,"103":0.0018049983567268244,"104":0.07263345760629224,"105":0.08394758838476862,"106":0.029325131789293198,"107":0.03807605269782286,"108":0.13543028571429971,"109":0.0635813539426231,"110":-0.05612289034855757,"111":0.07496359351509284,"112":0.09859691027839879,"113":0.0844829758483227,"114":0.15977388034744752,"115":0.09607062373739107,"116":0.05286042163450394,"117":0.041481202676560476,"118":0.1219191633771231,"119":-0.05198567461315356,"120":-0.05003705918270838,"121":-0.04154443748578203,"122":-0.037238574285607326,"123":0.13474590873855585,"124":0.03282182914466665,"125":0.08761015304719742,"126":0.017926719183462735,"127":0.04496015448464338,"128":-0.1459010433792781,"129":-0.11781857743217707,"130":0.007322691008548514,"131":0.020611472795943536,"132":-0.1030087872769517,"133":0.009546759748828034,"134":0.07490799125349334,"135":0.07031977651472737,"136":0.08952617905097272,"137":0.006169336196104558,"138":0.10579448007478638,"139":-0.019573670458488554,"140":0.0032521263362327276,"141":-0.025169682677777194,"142":0.125670588123361,"143":-0.027337304129951362,"144":-0.00982669998302373,"145":0.11257426166369061,"146":0.013821350412533491,"147":-0.06520195156914896,"148":0.010161276807758322,"149":0.11920097391559792,"150":0.07084464804120917,"151":0.10332598566840616,"152":0.08530555114873453,"153":0.1386035321329028,"154":-0.012545118765425172,"155":0.11037238430539853,"156":-0.009400720638366408,"157":0.015520592977058918,"158":0.04186262502065631,"159":-0.015458309372662196,"160":-0.0026816884268255196,"161":0.024403399998772602,"162":0.009620487125444709,"163":0.16272589031915718,"164":0.03700336649906136,"165":0.05047026354168537,"166":0.012296432325303292,"167":0.058401868251768504,"168":-0.031921649390435694,"169":-0.09780902465193607,"170":-0.06401878133878071,"171":0.02051345506094437,"172":0.07803692466869964,"173":0.029324546547766266,"174":0.06364125456883023,"175":-0.04638290416933346,"176":0.012178037090183622,"177":-0.10619527353328881,"178":0.07262009101511852,"179":0.03817163259459486,"180":0.07893399111703717,"181":0.11330281288701857,"182":-0.026540777294047354,"183":0.021479863908299885,"184":0.1945495457554614,"185":-0.13926792792486772,"186":0.13563090587458834,"187":0.08878033909085935,"188":-0.11708375174592024,"189":0.07641748402730664,"190":-0.020783478155870918,"191":-0.0019348799142668706,"192":-0.015408136803010657,"193":0.009132582548806133,"194":0.001440571103902566}},{"sx":1,"sy":1,"depth":195,"w":{"0":-0.13430860939434516,"1":0.00412954139497402,"2":0.08539738042696973,"3":-0.050740324138897744,"4":0.1712004758786972,"5":0.08273955652069749,"6":0.024011076073407342,"7":0.1250973952934397,"8":0.19000726041002627,"9":0.05089134439917233,"10":0.33673063745821885,"11":0.11234521556270541,"12":-0.007359780374041206,"13":0.14724925265462896,"14":0.11701560463162933,"15":-0.07890603663170624,"16":0.20313540895675575,"17":0.14895051755869013,"18":-0.06812849920239179,"19":-0.07561308935204487,"20":0.12760877962126493,"21":-0.018985666181681765,"22":0.121474569682374,"23":0.03606762587622444,"24":0.06839166038493087,"25":0.0273237592689799,"26":0.0059737894553255734,"27":0.049267476250172415,"28":0.07319449939189766,"29":0.026273384509114244,"30":0.11770141516699267,"31":0.283750055411562,"32":-0.10117650362625823,"33":-0.024875447359111378,"34":0.16168875765701146,"35":0.023363741754082158,"36":-0.10790636242422888,"37":0.20494333551276606,"38":0.05645165218450083,"39":-0.01950774371097162,"40":0.22944526579746832,"41":-0.005445367557477799,"42":-0.21975243310490014,"43":0.05953810783006892,"44":0.04671978913647659,"45":-0.10435730699241581,"46":0.06285679514063582,"47":0.032449958906347005,"48":0.0011546326963964453,"49":0.03589018814975531,"50":0.05952425562291173,"51":-0.07403402086232483,"52":0.10681243996288466,"53":-0.04644725400365275,"54":-0.07615571438923499,"55":0.0919589192270372,"56":-0.05786383432371578,"57":-0.1255901684510637,"58":0.10647998080380676,"59":0.04592048361325002,"60":-0.028227761192331967,"61":0.14642634948987518,"62":-0.05512207297633864,"63":-0.0705049035706398,"64":-0.15790701940090104,"65":0.018014741247276943,"66":-0.09941846865670258,"67":-0.16444106355256483,"68":0.042665164113827266,"69":0.06960468426713791,"70":0.017785445937551925,"71":0.1385520202784087,"72":-0.0047789311683250285,"73":0.08245768194639902,"74":0.017480200086363428,"75":-0.0020798966041773318,"76":-0.052578610577735455,"77":0.06153735385583791,"78":-0.04854330619349005,"79":-0.01413858468238103,"80":0.14949204428024168,"81":0.03876732264210001,"82":0.12303946453273487,"83":-0.0064603736444057425,"84":-0.05553127886419646,"85":0.06914976070114674,"86":0.018712381211595876,"87":0.04047599701509622,"88":-0.1142107279438352,"89":-0.1383972810704471,"90":-0.03088610344715323,"91":-0.045527502554829694,"92":0.009760389394393904,"93":-0.04032960257271796,"94":-0.05811909102880212,"95":-0.07397642746737425,"96":-0.07834593545779342,"97":0.09529082658954424,"98":-0.05202468260014988,"99":0.16916257790799988,"100":0.07810515832813161,"101":-0.04255962835496596,"102":-0.021984298161250818,"103":-0.04914803623031134,"104":0.05025953473210851,"105":-0.001743092706580978,"106":-0.04276460808393847,"107":-0.08854398827932317,"108":0.13058403587857936,"109":0.07856383905525159,"110":-0.04619316631579414,"111":0.06529252088454422,"112":0.00775134707056454,"113":-0.04650833660260234,"114":-0.01844136677410088,"115":0.13766372730181764,"116":0.001248773722846333,"117":-0.055196169419576176,"118":-0.12706425506694113,"119":-0.04333056903605745,"120":0.026137520143813337,"121":-0.09433201939552811,"122":-0.08028842242184056,"123":0.06780813292519648,"124":0.14154925905010765,"125":-0.000005045129861825005,"126":-0.10449065992944252,"127":0.047493934786389656,"128":0.10518542289885419,"129":0.05896179485600787,"130":0.09469961525741395,"131":-0.14047132413128655,"132":-0.01572848015573689,"133":-0.030158021723898278,"134":0.05160734393544499,"135":0.05243856254723751,"136":-0.043915608448120924,"137":-0.013920597121963786,"138":0.08741622924954744,"139":0.0345615107624478,"140":0.03620634512591538,"141":0.024658454684338936,"142":0.06683791282558738,"143":0.02871167004937306,"144":0.020864987589455514,"145":-0.03804748859635848,"146":0.06665577779148946,"147":0.0984132997313171,"148":-0.00964754663792031,"149":0.03199606848658166,"150":0.08577621240686234,"151":-0.010932177833797883,"152":0.08633673939501225,"153":-0.053334140931216745,"154":-0.05097317996017029,"155":-0.003582117163361075,"156":-0.02054341645736389,"157":0.052686306957102934,"158":-0.08645685746307244,"159":0.03196557500383977,"160":0.031532070722582205,"161":0.12202246949720483,"162":-0.005955489901306196,"163":-0.03563845677193423,"164":0.06088500504969466,"165":-0.02061998121713021,"166":-0.07033041874970704,"167":-0.04066597232426352,"168":0.04264556500539602,"169":0.007334978364140795,"170":0.028772168442500592,"171":-0.03877822826027461,"172":0.012058160623308231,"173":0.007385505869250833,"174":-0.012412748575714717,"175":-0.1795146840293453,"176":-0.05150319578477746,"177":0.09360376725086922,"178":-0.15383566705037466,"179":-0.009403240712927136,"180":0.046678387763748254,"181":-0.013408338655358508,"182":-0.12211659128887394,"183":-0.06020965453972867,"184":0.03129282979676267,"185":0.020099877607263075,"186":0.009790544486585754,"187":0.05341732489875162,"188":-0.01114138283794494,"189":0.015810074827189362,"190":-0.024115519865783218,"191":-0.05529947333543364,"192":-0.06627846897445484,"193":-0.046054649127547954,"194":-0.05298497295114015}}],"biases":{"sx":1,"sy":1,"depth":5,"w":{"0":0.1002923873235594,"1":0.09915212190995218,"2":0.09618637062975459,"3":0.10121062141898321,"4":0.10004707575631616}}},{"out_depth":5,"out_sx":1,"out_sy":1,"layer_type":"relu"},{"out_depth":5,"out_sx":1,"out_sy":1,"layer_type":"fc","num_inputs":5,"l1_decay_mul":0,"l2_decay_mul":1,"filters":[{"sx":1,"sy":1,"depth":5,"w":{"0":0.10670619319600988,"1":-0.6378600467242421,"2":0.5225072346439714,"3":-0.052422828834517786,"4":0.37258234383599514}},{"sx":1,"sy":1,"depth":5,"w":{"0":-0.8693495444181001,"1":-0.3793650852144483,"2":0.8264050920845032,"3":-0.4548575864537555,"4":0.11170146751785513}},{"sx":1,"sy":1,"depth":5,"w":{"0":-0.016569598889671293,"1":0.6779508314587287,"2":-0.44022204690183375,"3":-0.76533028519053,"4":-0.21876293290107157}},{"sx":1,"sy":1,"depth":5,"w":{"0":-0.765800552393371,"1":0.1830372144417502,"2":0.38491637518227767,"3":-0.48393194412599055,"4":0.5482839608176471}},{"sx":1,"sy":1,"depth":5,"w":{"0":-0.7095449736565723,"1":-0.41836591766105685,"2":-0.14377674648454417,"3":-0.24233073957754392,"4":0.12059309636990188}}],"biases":{"sx":1,"sy":1,"depth":5,"w":{"0":0.007888545563511117,"1":0.15507097025695774,"2":0.10350765778270361,"3":0.13316693881995617,"4":0.1013042136671009}}},{"out_depth":5,"out_sx":1,"out_sy":1,"layer_type":"relu"},{"out_depth":5,"out_sx":1,"out_sy":1,"layer_type":"fc","num_inputs":5,"l1_decay_mul":0,"l2_decay_mul":1,"filters":[{"sx":1,"sy":1,"depth":5,"w":{"0":0.4661621512691312,"1":0.9027900800960259,"2":-0.035349808228519033,"3":0.5229906856508899,"4":-0.14122795766153037}},{"sx":1,"sy":1,"depth":5,"w":{"0":0.6999208724521582,"1":-0.5888286882226064,"2":-0.005245403723950176,"3":0.40473611373638074,"4":0.21513666091133185}},{"sx":1,"sy":1,"depth":5,"w":{"0":0.3143508539056323,"1":-0.3719362424617613,"2":0.5407000460687523,"3":-0.44068916921472767,"4":-0.04222248800027518}},{"sx":1,"sy":1,"depth":5,"w":{"0":-0.052049742272430644,"1":0.08153786410363688,"2":-0.1851505775196577,"3":-0.11785358572990526,"4":0.023791946739495123}},{"sx":1,"sy":1,"depth":5,"w":{"0":0.8645574641656625,"1":-0.47726563244976256,"2":-0.06529307902735697,"3":-0.33305041277600167,"4":-0.031644661735974584}}],"biases":{"sx":1,"sy":1,"depth":5,"w":{"0":-0.2521494029668026,"1":0.2902543260883661,"2":0.3231528670066176,"3":-0.0414588360907179,"4":0.0856181786010773}}},{"out_depth":5,"out_sx":1,"out_sy":1,"layer_type":"relu"},{"out_depth":5,"out_sx":1,"out_sy":1,"layer_type":"fc","num_inputs":5,"l1_decay_mul":0,"l2_decay_mul":1,"filters":[{"sx":1,"sy":1,"depth":5,"w":{"0":0.5068576170081505,"1":0.0740379524369648,"2":-0.5822689526489564,"3":-0.8376390863283388,"4":-0.5588394548250301}},{"sx":1,"sy":1,"depth":5,"w":{"0":0.4648097219672328,"1":0.05540385152923814,"2":-0.4490134658802101,"3":-0.33214669423323095,"4":0.4451247349879071}},{"sx":1,"sy":1,"depth":5,"w":{"0":0.4517502956220804,"1":-0.36042681520589187,"2":0.2530699830270692,"3":-0.45978859048340964,"4":-0.48665112771051044}},{"sx":1,"sy":1,"depth":5,"w":{"0":0.6414037130779047,"1":-0.9292840413463694,"2":-0.12075309850416034,"3":-0.48768470904493066,"4":0.514865940179437}},{"sx":1,"sy":1,"depth":5,"w":{"0":0.4901061500775591,"1":0.22092168461116235,"2":-1.1418017486499825,"3":-0.17180988770617656,"4":-0.5574729597572442}}],"biases":{"sx":1,"sy":1,"depth":5,"w":{"0":-0.07829750614829246,"1":0.013896221022501317,"2":-0.2594814672996893,"3":-0.2782411570346502,"4":-0.03471547732076234}}},{"out_depth":5,"out_sx":1,"out_sy":1,"layer_type":"regression","num_inputs":5}]});
}